5.84521117747266 6.805733125437135 -4.230661032180215 -5.677191263875242 -2.9268536265156486 5.679325173032265 -2.7618159276695486 -1.0426923745291734 -7.932273091492214 -7.551113461667654 1.7493021885454554 -6.776338830572031 -3.4825214721293136 -4.4488529548043 -3.2002209750895934 -0.29126195173049146 -1.4929516223204737 4.826909269216411 -1.1392528019892372 -2.1894991296184667 -5.45652995105585 -4.486938446058103 7.606079485123954 5.032109127176528 -2.1085911689196206 4.425201050621452 6.01750429054883 1.017588503355006 -3.2986861938285164 4.910164890388189 7.46467276727714 -8.655142191911388 
14.850490687343678 4.1803378811466425 1.4988247252447655 -5.135705672558396 -10.834691409198518 16.151002009101415 7.214531484160089 -17.527944720959585 14.106861947876464 -15.334261948524597 10.158124189795839 -19.765810792761943 -2.3276030549429603 -10.960083578269408 -3.358925185120835 -6.032129588075549 2.2374955971432517 -11.693062775035951 0.365176622358595 21.849468096136622 -20.6569564824403 -1.398203191771583 -4.293584190703436 5.447186410341023 
